//-----------------------------------------------------------------------------
// Network: Dm4lmet
// Inputs:
//                                                  Offset       Scale
//    f_mass4l                                   1.749e+02   9.057e+01
//    f_pfmet                                    1.052e+02   9.050e+01
//
// Created: Mon Jan 23 20:09:32 2017 by netwrite.py
//-----------------------------------------------------------------------------
#include <cmath>
#include <vector>
#include <iostream>
#include <stdlib.h>
//-----------------------------------------------------------------------------
// Make following visible only to this programming unit
namespace {
  // NOTE: Network indices start at 0
  static const int nnetworks=100;
  static const int ninputs  =2;
  static const int nhidden  =10;
  static const int nparams  =41;

  static const double mean[ninputs]={
  1.0520e+02,
  1.7490e+02
  };

  static const double sigma[ninputs]={
  9.0500e+01,
  9.0570e+01
  };

  static const double weight[nnetworks][nparams]={
    {-7.9500e-01,-5.6700e-01,-1.8700e-01, 9.1600e-01,-1.2600e+00,-1.3000e-02,
      4.1300e-01, 1.4450e+00, 1.9200e-01, 5.5500e-01, 1.3230e+00, 1.4890e+00,
     -1.1210e+00, 2.1000e-01,-4.2530e+00,-2.6900e+00,-1.8200e-01,-2.8400e-01,
      2.2130e+00, 8.7200e-01, 1.9390e+00,-1.3900e-01, 8.9000e-01, 6.9000e-02,
      3.2000e-02,-1.1620e+00, 2.0400e+00, 1.3940e+00,-1.5440e+00, 7.8900e-01,
     -3.9190e+00,-1.6360e+00,-1.5960e+00, 6.2570e+00, 3.4790e+00, 1.0575e+01,
      6.3500e+00, 7.1950e+00,-3.1990e+00, 5.5800e-01, 3.4120e+00
    },
    {-7.8800e-01,-6.7100e-01,-3.4200e-01, 1.0600e+00,-1.3180e+00,-2.8700e-01,
      3.5200e-01, 1.3960e+00, 1.7600e-01, 6.5200e-01, 1.2680e+00, 1.5600e+00,
     -1.1220e+00, 1.4900e-01,-4.2520e+00,-2.5110e+00,-1.2500e-01,-7.0000e-01,
      2.0210e+00, 8.3300e-01, 1.8360e+00,-3.1600e-01, 9.5000e-01, 2.4000e-01,
      1.3900e-01,-1.3740e+00, 2.0200e+00, 1.6470e+00,-1.4370e+00, 6.0700e-01,
     -3.9750e+00,-1.5990e+00,-9.6300e-01, 6.0130e+00, 3.8120e+00, 1.0854e+01,
      7.1460e+00, 6.8160e+00,-3.5560e+00, 9.1600e-01, 3.1960e+00
    },
    {-7.4400e-01,-7.1600e-01,-5.5600e-01, 9.1500e-01,-1.0590e+00,-5.9400e-01,
      2.5300e-01, 1.3650e+00, 2.2200e-01, 9.2400e-01, 1.2370e+00, 1.4110e+00,
     -1.3210e+00, 4.8000e-02,-4.3330e+00,-2.4970e+00, 5.0000e-02,-1.1500e+00,
      1.9590e+00, 6.2200e-01, 1.8920e+00,-2.5800e-01, 1.0030e+00, 4.6300e-01,
      2.1500e-01,-1.7820e+00, 1.8310e+00, 1.7090e+00,-1.5510e+00, 4.2800e-01,
     -3.7090e+00,-9.5600e-01,-1.0700e+00, 5.8290e+00, 3.5910e+00, 9.5560e+00,
      7.1600e+00, 6.9010e+00,-3.2760e+00, 5.6400e-01, 3.5240e+00
    },
    {-5.4000e-01,-5.3400e-01,-6.4300e-01, 8.9600e-01,-1.2680e+00,-4.7900e-01,
      2.0900e-01, 1.3780e+00, 2.0100e-01, 5.5300e-01, 1.3760e+00, 1.4300e+00,
     -1.1190e+00, 5.8000e-02,-4.4020e+00,-2.2680e+00, 7.8000e-02,-1.1650e+00,
      1.9600e+00, 7.5100e-01, 1.5930e+00,-4.3600e-01, 1.2140e+00, 5.4200e-01,
      1.9300e-01,-1.5890e+00, 1.8520e+00, 1.7570e+00,-1.4550e+00, 5.5600e-01,
     -3.4570e+00,-1.9630e+00,-1.4900e+00, 6.1040e+00, 3.5230e+00, 9.9020e+00,
      7.6650e+00, 7.1140e+00,-3.4570e+00, 5.1700e-01, 3.3900e+00
    },
    {-6.5700e-01,-6.8300e-01,-6.7000e-01, 7.3800e-01,-1.1950e+00,-6.8000e-01,
      1.5400e-01, 1.4700e+00, 1.5800e-01, 4.8400e-01, 1.3330e+00, 1.2890e+00,
     -1.1460e+00,-3.3000e-02,-4.3860e+00,-2.1030e+00, 8.7000e-02,-1.1590e+00,
      2.0040e+00, 8.1700e-01, 1.7140e+00,-5.4700e-01, 1.4030e+00, 5.4200e-01,
      1.7600e-01,-1.5790e+00, 1.9040e+00, 1.6870e+00,-1.3570e+00, 4.3500e-01,
     -2.9220e+00,-2.1490e+00,-1.3110e+00, 6.6160e+00, 3.9640e+00, 9.9790e+00,
      8.3180e+00, 7.7160e+00,-4.1870e+00, 6.3500e-01, 3.5410e+00
    },
    {-7.0300e-01,-4.1000e-01,-3.0400e-01, 9.4300e-01,-1.7350e+00,-5.1300e-01,
      7.8000e-02, 1.2900e+00,-1.1000e-01, 6.6800e-01, 1.1170e+00, 1.2210e+00,
     -1.3870e+00,-3.0000e-03,-4.7000e+00,-2.1160e+00,-2.9000e-02,-9.2400e-01,
      1.8640e+00, 8.0000e-01, 1.6390e+00,-4.6900e-01, 1.2860e+00, 3.7300e-01,
     -9.0000e-03,-1.8740e+00, 2.0680e+00, 1.3950e+00,-1.4950e+00, 3.8500e-01,
     -3.4660e+00,-2.2240e+00,-1.7270e+00, 6.3240e+00, 3.9930e+00, 9.3310e+00,
      8.2220e+00, 7.7140e+00,-3.6420e+00, 4.9100e-01, 3.8510e+00
    },
    {-6.1600e-01,-3.5500e-01,-2.9500e-01, 9.6100e-01,-1.6000e+00,-1.0910e+00,
      2.2800e-01, 1.2910e+00, 4.6000e-02, 5.3000e-01, 1.1040e+00, 1.2160e+00,
     -1.2350e+00, 9.9000e-02,-4.5480e+00,-2.1660e+00, 2.1100e-01,-1.1820e+00,
      1.6920e+00, 6.3200e-01, 1.8050e+00,-6.1400e-01, 1.1580e+00, 6.0900e-01,
     -1.9000e-02,-1.5600e+00, 2.2110e+00, 1.5570e+00,-1.5290e+00, 2.7900e-01,
     -3.4870e+00,-2.2150e+00,-1.4560e+00, 5.9090e+00, 3.7140e+00, 1.0084e+01,
      7.8050e+00, 8.0250e+00,-3.8570e+00,-1.7000e-02, 3.1350e+00
    },
    {-5.6300e-01,-4.9500e-01,-1.2400e-01, 9.4700e-01,-1.8290e+00,-1.0930e+00,
      1.8300e-01, 1.2170e+00,-2.4000e-02, 5.4300e-01, 1.1740e+00, 8.7900e-01,
     -1.4570e+00, 7.8000e-02,-4.6120e+00,-2.1460e+00, 1.9300e-01,-1.1160e+00,
      1.8140e+00, 5.9400e-01, 1.8260e+00,-5.8300e-01, 9.8500e-01, 8.0800e-01,
     -4.7000e-02,-1.5870e+00, 2.1440e+00, 1.3720e+00,-1.3280e+00, 4.9700e-01,
     -3.5900e+00,-2.1850e+00,-1.8170e+00, 5.9430e+00, 4.0390e+00, 1.0764e+01,
      8.1020e+00, 7.7810e+00,-3.5660e+00,-1.1900e-01, 3.2070e+00
    },
    {-6.9600e-01,-5.7700e-01,-2.4000e-02, 9.4600e-01,-1.7980e+00,-1.0310e+00,
      3.0100e-01, 1.0280e+00, 2.5000e-02, 5.3300e-01, 1.2330e+00, 6.9200e-01,
     -1.4980e+00, 2.8000e-02,-4.6250e+00,-2.1850e+00, 2.7300e-01,-1.1750e+00,
      1.7720e+00, 7.1200e-01, 2.0570e+00,-5.3100e-01, 1.0250e+00, 6.7900e-01,
     -2.2300e-01,-1.3510e+00, 2.2400e+00, 1.3540e+00,-9.9300e-01, 4.7600e-01,
     -3.8150e+00,-2.7130e+00,-1.4070e+00, 5.2830e+00, 3.8270e+00, 1.0187e+01,
      8.0230e+00, 7.6270e+00,-2.9980e+00, 2.3200e-01, 4.1760e+00
    },
    {-7.2500e-01,-4.9400e-01,-4.8200e-01, 1.1190e+00,-1.7800e+00,-1.0630e+00,
      2.8800e-01, 1.0730e+00,-6.1000e-02, 3.8800e-01, 1.4130e+00, 1.1450e+00,
     -1.3790e+00, 8.0000e-03,-4.5540e+00,-2.0200e+00, 2.7300e-01,-1.2040e+00,
      1.8220e+00, 9.0100e-01, 1.8200e+00,-6.5500e-01, 9.6000e-01, 6.2700e-01,
      3.4000e-02,-1.6500e+00, 2.0580e+00, 1.4890e+00,-1.1740e+00, 4.7700e-01,
     -4.0250e+00,-2.8610e+00,-2.0010e+00, 5.0730e+00, 4.2030e+00, 1.0146e+01,
      7.8750e+00, 7.7070e+00,-3.5250e+00, 3.6000e-01, 4.3600e+00
    },
    {-5.9200e-01,-4.2400e-01,-5.0000e-01, 1.0690e+00,-1.8060e+00,-9.9700e-01,
      2.2000e-01, 1.1370e+00,-4.7000e-02, 3.4100e-01, 1.5050e+00, 1.3620e+00,
     -1.3180e+00,-5.7000e-02,-4.5150e+00,-2.1340e+00, 8.9000e-02,-1.1650e+00,
      1.8580e+00, 8.2600e-01, 1.7390e+00,-7.9900e-01, 1.0560e+00, 7.3800e-01,
      1.7000e-02,-1.5200e+00, 2.0370e+00, 1.2550e+00,-1.2730e+00, 5.0800e-01,
     -3.6850e+00,-3.2830e+00,-1.7370e+00, 4.8290e+00, 3.3080e+00, 9.5640e+00,
      8.1860e+00, 8.0650e+00,-3.2380e+00, 1.7000e-02, 4.0140e+00
    },
    {-5.3000e-01,-4.5800e-01,-5.0600e-01, 1.0520e+00,-1.7180e+00,-9.2200e-01,
      2.9800e-01, 1.1860e+00,-1.1800e-01, 2.9700e-01, 1.4820e+00, 1.3920e+00,
     -1.3800e+00,-1.9000e-02,-4.4280e+00,-1.9350e+00, 1.3500e-01,-1.1710e+00,
      1.7800e+00, 7.0800e-01, 1.7860e+00,-9.9300e-01, 9.6100e-01, 6.3300e-01,
      1.7800e-01,-1.5150e+00, 2.1010e+00, 1.3450e+00,-1.2820e+00, 4.8000e-01,
     -3.6230e+00,-3.0610e+00,-2.4790e+00, 4.7640e+00, 3.4040e+00, 1.0304e+01,
      7.6220e+00, 7.6520e+00,-3.3780e+00, 1.2710e+00, 3.7740e+00
    },
    {-4.6000e-01,-5.1000e-01,-5.2300e-01, 1.0450e+00,-1.7950e+00,-9.0400e-01,
      3.0900e-01, 1.1360e+00,-1.4200e-01, 5.1600e-01, 1.3220e+00, 1.4700e+00,
     -1.3680e+00,-3.0000e-03,-4.5300e+00,-2.0490e+00, 2.0800e-01,-1.0450e+00,
      1.8140e+00, 8.0500e-01, 1.6000e+00,-9.4100e-01, 9.5700e-01, 6.1900e-01,
      8.6000e-02,-1.5210e+00, 1.9680e+00, 1.2760e+00,-1.4490e+00, 5.0500e-01,
     -3.5110e+00,-3.5100e+00,-3.0190e+00, 4.4820e+00, 3.6450e+00, 1.0641e+01,
      7.5960e+00, 7.8620e+00,-2.9800e+00, 9.3200e-01, 3.8160e+00
    },
    {-8.0000e-02,-8.7500e-01,-5.5400e-01, 1.2360e+00,-1.9040e+00,-8.0000e-01,
      2.4600e-01, 7.9200e-01, 3.3000e-02, 3.9300e-01, 9.4900e-01, 9.2600e-01,
     -1.2270e+00,-1.8600e-01,-3.8770e+00,-2.2630e+00, 8.3200e-01,-7.5200e-01,
      1.7460e+00, 9.3100e-01, 1.6320e+00,-5.6600e-01, 1.0380e+00, 6.4600e-01,
      2.7600e-01,-1.8270e+00, 2.0230e+00, 1.5910e+00,-1.6530e+00, 4.5700e-01,
     -2.4150e+00,-2.4120e+00,-2.7140e+00, 4.6140e+00, 3.8650e+00, 9.6660e+00,
      6.7550e+00, 7.0700e+00,-3.5330e+00, 3.5900e-01, 4.5270e+00
    },
    {-2.1100e-01,-8.0700e-01,-6.2200e-01, 1.1810e+00,-1.7730e+00,-8.1000e-01,
      1.9000e-01, 1.0020e+00,-1.3800e-01, 3.3800e-01, 8.7100e-01, 1.0230e+00,
     -1.1350e+00,-2.3600e-01,-3.9560e+00,-2.3500e+00, 6.3500e-01,-8.7700e-01,
      1.7700e+00, 9.4300e-01, 1.4760e+00,-5.4500e-01, 9.7900e-01, 7.1900e-01,
      1.3200e-01,-1.6540e+00, 2.1110e+00, 1.4680e+00,-1.5530e+00, 5.3500e-01,
     -2.6740e+00,-2.7230e+00,-3.0210e+00, 4.5010e+00, 4.7600e+00, 9.4590e+00,
      6.9540e+00, 7.1460e+00,-4.5880e+00, 8.9200e-01, 4.1490e+00
    },
    {-1.5900e-01,-8.3800e-01,-6.9000e-01, 1.1970e+00,-1.7020e+00,-7.5100e-01,
      1.9500e-01, 1.0620e+00,-6.2000e-02, 4.5600e-01, 8.2300e-01, 1.0120e+00,
     -1.1860e+00,-2.5900e-01,-4.0800e+00,-2.5490e+00, 5.3900e-01,-9.4200e-01,
      1.7400e+00, 9.0300e-01, 1.4750e+00,-3.6000e-01, 1.0590e+00, 7.9200e-01,
      1.7500e-01,-1.5940e+00, 2.1490e+00, 1.4020e+00,-1.5220e+00, 5.1600e-01,
     -1.9380e+00,-2.7470e+00,-2.6340e+00, 4.6110e+00, 4.8410e+00, 8.4230e+00,
      6.0760e+00, 6.1700e+00,-4.4770e+00, 5.9000e-01, 3.6980e+00
    },
    {-9.3000e-02,-1.0410e+00,-7.3100e-01, 1.5460e+00,-1.4610e+00,-8.3600e-01,
      3.7900e-01, 1.1450e+00,-9.4000e-02, 6.6100e-01, 1.0320e+00, 1.0360e+00,
     -1.1900e+00,-1.5900e-01,-4.0140e+00,-2.4870e+00, 5.7000e-01,-8.8800e-01,
      1.7630e+00, 9.6500e-01, 1.3430e+00,-4.5300e-01, 9.7500e-01, 6.1500e-01,
      1.4600e-01,-1.6990e+00, 1.9670e+00, 1.5170e+00,-1.4680e+00, 4.9500e-01,
     -2.9480e+00,-2.5910e+00,-3.2750e+00, 4.6230e+00, 4.0920e+00, 8.3330e+00,
      5.7430e+00, 5.6980e+00,-4.1610e+00,-1.4200e-01, 4.0020e+00
    },
    { 3.9000e-02,-1.1080e+00,-6.3000e-01, 1.6380e+00,-1.3590e+00,-7.4600e-01,
      1.1900e-01, 1.0340e+00,-7.1000e-02, 6.9500e-01, 8.9800e-01, 1.1300e+00,
     -1.1880e+00,-2.4100e-01,-3.9340e+00,-2.4540e+00, 4.2800e-01,-6.8400e-01,
      1.9980e+00, 1.0370e+00, 1.5510e+00,-3.5400e-01, 6.7000e-01, 9.3900e-01,
      8.1000e-02,-1.4640e+00, 2.1770e+00, 1.4610e+00,-1.4460e+00, 6.9200e-01,
     -3.6720e+00,-1.7190e+00,-2.4510e+00, 4.9200e+00, 4.6540e+00, 8.5290e+00,
      5.9640e+00, 6.5890e+00,-3.8390e+00,-2.9200e-01, 4.5670e+00
    },
    { 3.1000e-02,-1.0380e+00,-6.7600e-01, 1.6540e+00,-1.3870e+00,-8.5100e-01,
      1.1200e-01, 1.0820e+00,-1.1200e-01, 6.5700e-01, 7.2000e-01, 1.2510e+00,
     -1.2900e+00,-1.0500e-01,-3.9580e+00,-2.3370e+00, 4.3600e-01,-6.2200e-01,
      1.8410e+00, 9.8200e-01, 1.4210e+00,-2.9600e-01, 6.5200e-01, 9.7600e-01,
      2.6800e-01,-1.6090e+00, 2.1330e+00, 1.6750e+00,-1.5890e+00, 6.8200e-01,
     -3.2870e+00,-1.9270e+00,-1.9610e+00, 4.5110e+00, 4.3980e+00, 8.5540e+00,
      5.6190e+00, 6.6300e+00,-3.4210e+00,-1.8600e-01, 4.2290e+00
    },
    {-3.3100e-01,-1.1000e+00,-6.2800e-01, 1.6570e+00,-1.3800e+00,-6.8800e-01,
      1.4300e-01, 1.2760e+00, 5.1000e-02, 5.1600e-01, 8.2500e-01, 1.1460e+00,
     -1.2640e+00,-1.9200e-01,-4.1210e+00,-2.4640e+00, 4.3900e-01,-6.2600e-01,
      2.0190e+00, 1.0510e+00, 1.4550e+00,-2.6200e-01, 8.7300e-01, 1.0560e+00,
     -5.0000e-03,-1.0840e+00, 2.0560e+00, 1.2830e+00,-1.2800e+00, 1.0190e+00,
     -3.0340e+00,-2.6760e+00,-2.2250e+00, 4.8630e+00, 4.5540e+00, 8.9230e+00,
      5.9450e+00, 6.6180e+00,-3.3580e+00,-1.5200e-01, 4.6400e+00
    },
    {-5.2700e-01,-1.0410e+00,-5.1600e-01, 1.7400e+00,-1.4550e+00,-7.5600e-01,
      1.7500e-01, 1.3470e+00,-4.8000e-02, 5.1400e-01, 7.1800e-01, 8.7500e-01,
     -1.1980e+00,-2.0500e-01,-4.2440e+00,-2.2530e+00, 6.4300e-01,-4.2600e-01,
      2.1540e+00, 1.0140e+00, 1.4790e+00, 7.4000e-02, 3.9900e-01, 9.9100e-01,
     -1.7000e-01,-1.2920e+00, 2.2410e+00, 1.2040e+00,-1.1330e+00, 9.8800e-01,
     -2.8270e+00,-2.8450e+00,-2.4740e+00, 5.3170e+00, 4.5870e+00, 8.8100e+00,
      5.7640e+00, 6.4840e+00,-3.3870e+00,-1.4300e-01, 3.5680e+00
    },
    {-6.2700e-01,-1.1040e+00,-4.2500e-01, 1.6140e+00,-1.4900e+00,-8.5700e-01,
      2.2500e-01, 1.3360e+00, 1.0000e-02, 4.6700e-01, 8.8300e-01, 7.4600e-01,
     -1.2450e+00,-3.1000e-01,-4.3380e+00,-2.3540e+00, 8.3300e-01,-2.4500e-01,
      2.1810e+00, 8.6700e-01, 1.5520e+00, 2.1200e-01, 5.7700e-01, 9.6200e-01,
     -9.6000e-02,-1.3220e+00, 2.2370e+00, 1.1250e+00,-1.2490e+00, 1.0140e+00,
     -2.7960e+00,-2.9840e+00,-1.9260e+00, 5.1320e+00, 5.0450e+00, 7.8780e+00,
      5.9790e+00, 6.0600e+00,-3.1750e+00,-7.3600e-01, 3.8890e+00
    },
    {-5.2200e-01,-1.0680e+00,-4.0800e-01, 1.7030e+00,-1.3040e+00,-9.2000e-01,
      1.2600e-01, 1.5020e+00,-4.0000e-03, 4.2100e-01, 7.5200e-01, 8.4600e-01,
     -1.2590e+00,-4.4200e-01,-4.3440e+00,-2.4500e+00, 8.8600e-01,-4.7300e-01,
      2.3300e+00, 1.0350e+00, 1.5910e+00, 1.9600e-01, 5.5800e-01, 8.6300e-01,
     -6.1000e-02,-1.3140e+00, 2.1840e+00, 9.6400e-01,-1.1090e+00, 9.8100e-01,
     -1.9870e+00,-2.9620e+00,-1.9590e+00, 5.2930e+00, 5.1030e+00, 7.6040e+00,
      6.1040e+00, 5.9910e+00,-3.3140e+00,-1.3850e+00, 4.5360e+00
    },
    {-2.5600e-01,-1.2910e+00,-6.9800e-01, 1.9510e+00,-1.3640e+00,-8.3000e-01,
      2.1000e-02, 1.6650e+00, 1.6000e-02, 5.5100e-01, 7.6200e-01, 7.2000e-01,
     -1.2030e+00,-6.5300e-01,-4.2160e+00,-2.5890e+00, 9.5800e-01,-4.4700e-01,
      2.2090e+00, 9.4700e-01, 1.5790e+00, 8.7000e-02, 5.3000e-01, 9.0900e-01,
     -1.2200e-01,-1.4110e+00, 2.1010e+00, 1.2440e+00,-1.1180e+00, 8.3100e-01,
     -2.9090e+00,-3.2210e+00,-2.3830e+00, 5.2950e+00, 4.6870e+00, 7.8020e+00,
      6.2120e+00, 7.1080e+00,-3.9890e+00,-1.8010e+00, 4.8420e+00
    },
    {-2.4900e-01,-1.3370e+00,-5.5300e-01, 1.8600e+00,-1.2490e+00,-9.5100e-01,
      1.6700e-01, 1.7040e+00, 7.6000e-02, 6.9800e-01, 6.1000e-01, 8.6100e-01,
     -1.1990e+00,-6.6800e-01,-4.1150e+00,-2.5300e+00, 1.0200e+00,-4.8200e-01,
      2.1640e+00, 1.0670e+00, 1.5980e+00, 1.8400e-01, 6.2500e-01, 9.1800e-01,
     -2.2500e-01,-1.6520e+00, 2.0730e+00, 1.3090e+00,-1.1200e+00, 9.4000e-01,
     -2.6420e+00,-3.0760e+00,-2.6420e+00, 4.9380e+00, 4.5250e+00, 8.2380e+00,
      6.0120e+00, 6.5290e+00,-4.2550e+00,-2.3770e+00, 4.1090e+00
    },
    {-1.5600e-01,-1.4280e+00,-7.3300e-01, 1.8040e+00,-1.2400e+00,-8.9100e-01,
      2.4600e-01, 1.6180e+00, 1.2100e-01, 8.5900e-01, 6.7300e-01, 7.7500e-01,
     -1.3070e+00,-7.1800e-01,-4.1970e+00,-2.5050e+00, 1.0550e+00,-4.7900e-01,
      2.1100e+00, 9.2400e-01, 1.7410e+00,-5.4000e-02, 7.7000e-01, 8.7500e-01,
     -3.4600e-01,-1.6600e+00, 2.1090e+00, 1.3040e+00,-1.0790e+00, 9.4400e-01,
     -2.8340e+00,-2.9340e+00,-2.8520e+00, 5.1930e+00, 4.3210e+00, 8.2230e+00,
      5.6370e+00, 5.7860e+00,-3.4420e+00,-2.0430e+00, 3.9980e+00
    },
    { 1.4400e-01,-1.3530e+00,-5.5500e-01, 1.5290e+00,-9.3300e-01,-1.2380e+00,
      3.4700e-01, 1.6580e+00, 6.8000e-02, 9.0600e-01, 9.6500e-01, 5.8500e-01,
     -1.2790e+00,-6.1700e-01,-4.1900e+00,-2.6610e+00, 8.8200e-01,-7.9000e-01,
      2.1220e+00, 7.0600e-01, 1.7780e+00,-2.4600e-01, 6.6900e-01, 8.8000e-01,
     -1.3300e-01,-1.4610e+00, 2.3750e+00, 1.3390e+00,-1.2980e+00, 9.3900e-01,
     -2.9160e+00,-2.3960e+00,-3.4380e+00, 5.1430e+00, 4.9020e+00, 8.4590e+00,
      6.3410e+00, 6.0290e+00,-2.6500e+00,-2.6600e+00, 3.1230e+00
    },
    { 1.8600e-01,-1.3330e+00,-3.8100e-01, 1.6370e+00,-9.1600e-01,-1.2880e+00,
      3.1300e-01, 1.5930e+00, 1.7000e-02, 8.4500e-01, 1.1890e+00, 4.9100e-01,
     -1.0670e+00,-6.2700e-01,-4.2160e+00,-2.6320e+00, 1.0080e+00,-8.5900e-01,
      1.9300e+00, 7.1400e-01, 1.6450e+00,-3.1100e-01, 8.0000e-01, 7.8500e-01,
     -5.7000e-02,-1.3380e+00, 2.5140e+00, 1.4290e+00,-1.1800e+00, 9.1100e-01,
     -3.0960e+00,-3.3790e+00,-3.3220e+00, 4.3970e+00, 5.4050e+00, 8.6200e+00,
      6.2840e+00, 5.2520e+00,-2.5230e+00,-3.2260e+00, 3.9190e+00
    },
    {-2.0000e-02,-1.3290e+00,-5.2600e-01, 1.5810e+00,-1.0880e+00,-1.3130e+00,
      1.2700e-01, 1.4380e+00, 1.1400e-01, 1.0690e+00, 9.5800e-01, 7.0700e-01,
     -9.6300e-01,-8.7300e-01,-4.3350e+00,-2.4180e+00, 9.4000e-01,-9.1500e-01,
      1.9130e+00, 6.5800e-01, 1.5850e+00,-2.2000e-01, 7.1300e-01, 8.6400e-01,
     -6.9000e-02,-1.2440e+00, 2.5060e+00, 1.2320e+00,-1.2820e+00, 8.7100e-01,
     -2.5450e+00,-3.0070e+00,-3.1290e+00, 4.9950e+00, 4.5960e+00, 8.3550e+00,
      6.8430e+00, 5.6930e+00,-2.6790e+00,-2.7720e+00, 3.2190e+00
    },
    { 2.5300e-01,-1.3790e+00,-7.4400e-01, 1.4680e+00,-8.3700e-01,-1.5810e+00,
      1.7700e-01, 1.6030e+00, 1.3000e-01, 9.6000e-01, 9.3600e-01, 6.6600e-01,
     -1.0630e+00,-7.8400e-01,-4.2660e+00,-2.4690e+00, 8.2400e-01,-1.0540e+00,
      1.9170e+00, 8.0000e-01, 1.4940e+00,-2.9000e-01, 5.1000e-01, 9.0200e-01,
      2.1000e-02,-1.1220e+00, 2.7730e+00, 1.3380e+00,-1.3550e+00, 9.1900e-01,
     -2.5000e+00,-2.7960e+00,-3.1340e+00, 4.6570e+00, 4.5460e+00, 8.4010e+00,
      6.3580e+00, 6.2310e+00,-2.4120e+00,-2.5900e+00, 2.5700e+00
    },
    { 1.9100e-01,-1.4210e+00,-9.3300e-01, 1.3060e+00,-1.0140e+00,-1.5180e+00,
      1.3200e-01, 1.4320e+00, 6.9000e-02, 9.8200e-01, 1.0270e+00, 6.9400e-01,
     -9.6200e-01,-7.1800e-01,-4.2680e+00,-2.4440e+00, 7.5000e-01,-1.1330e+00,
      1.9340e+00, 8.7600e-01, 1.4460e+00,-8.3000e-02, 6.6900e-01, 8.2900e-01,
     -1.5400e-01,-1.3050e+00, 2.7330e+00, 1.4210e+00,-1.4920e+00, 9.6900e-01,
     -3.3170e+00,-2.6490e+00,-3.1490e+00, 4.4470e+00, 5.0560e+00, 8.3780e+00,
      6.0470e+00, 6.0510e+00,-2.3270e+00,-2.1850e+00, 3.1600e+00
    },
    { 1.2800e-01,-1.3090e+00,-1.0320e+00, 1.3800e+00,-1.1100e+00,-1.4660e+00,
     -7.0000e-03, 1.3340e+00, 8.0000e-02, 1.1060e+00, 9.4400e-01, 7.5700e-01,
     -8.5500e-01,-7.0300e-01,-4.0620e+00,-2.3550e+00, 6.8200e-01,-1.0030e+00,
      1.8560e+00, 8.5300e-01, 1.3760e+00, 4.1000e-02, 4.8800e-01, 1.1060e+00,
     -1.9000e-02,-1.0260e+00, 2.8190e+00, 1.2640e+00,-1.4450e+00, 8.6600e-01,
     -3.3000e+00,-2.6720e+00,-3.2100e+00, 4.1220e+00, 4.7450e+00, 8.4770e+00,
      6.0740e+00, 6.2270e+00,-1.6880e+00,-1.7600e+00, 3.2410e+00
    },
    { 6.2600e-01,-1.7370e+00,-1.4480e+00, 1.6960e+00,-1.1090e+00,-1.7980e+00,
      1.1500e-01, 1.5200e+00, 9.0000e-03, 1.3150e+00, 1.0450e+00, 4.2400e-01,
     -9.7000e-01,-1.6800e-01,-4.2090e+00,-2.1050e+00, 4.8500e-01,-5.4300e-01,
      1.8560e+00, 9.8700e-01, 1.6400e+00,-6.2000e-02, 5.6900e-01, 1.1140e+00,
     -7.1000e-02,-9.6800e-01, 2.8510e+00, 1.5880e+00,-1.6730e+00, 7.9100e-01,
     -2.9030e+00,-2.7700e+00,-2.7800e+00, 4.2920e+00, 4.9530e+00, 8.3380e+00,
      6.7090e+00, 6.0210e+00,-2.5900e+00,-1.5670e+00, 3.5020e+00
    },
    { 4.1700e-01,-1.7490e+00,-1.1640e+00, 1.6200e+00,-9.2900e-01,-1.8360e+00,
      7.9000e-02, 1.3750e+00, 6.3000e-02, 1.2760e+00, 1.1550e+00, 8.3600e-01,
     -1.1130e+00,-4.4900e-01,-4.3770e+00,-2.0310e+00, 5.7000e-01,-7.2400e-01,
      1.8340e+00, 8.1000e-01, 1.2900e+00, 8.8000e-02, 4.6000e-01, 1.0720e+00,
     -1.7000e-01,-1.0350e+00, 2.9520e+00, 1.6540e+00,-1.6010e+00, 8.4000e-01,
     -3.7860e+00,-2.4030e+00,-2.6550e+00, 3.9460e+00, 5.2570e+00, 8.1610e+00,
      6.2040e+00, 5.9520e+00,-2.7070e+00,-1.5700e+00, 3.1040e+00
    },
    { 3.1900e-01,-1.7550e+00,-9.7200e-01, 1.5920e+00,-1.0010e+00,-1.9200e+00,
     -1.7900e-01, 1.3650e+00, 1.2000e-02, 1.2290e+00, 1.0960e+00, 7.2600e-01,
     -1.0690e+00,-4.9700e-01,-4.5060e+00,-2.2210e+00, 4.0300e-01,-8.4000e-01,
      1.9030e+00, 1.0060e+00, 1.3950e+00, 1.1700e-01, 2.3200e-01, 1.0680e+00,
     -3.0300e-01,-1.0370e+00, 2.9440e+00, 1.5710e+00,-1.5040e+00, 9.1200e-01,
     -3.7550e+00,-2.2150e+00,-3.0120e+00, 3.3430e+00, 5.5690e+00, 8.3270e+00,
      5.7160e+00, 5.4500e+00,-2.7790e+00,-1.9270e+00, 2.7210e+00
    },
    { 2.7400e-01,-1.6270e+00,-7.7500e-01, 1.5470e+00,-1.0700e+00,-2.0870e+00,
     -2.2600e-01, 1.3480e+00,-2.3000e-02, 1.2060e+00, 1.0040e+00, 8.0400e-01,
     -9.8800e-01,-4.2200e-01,-4.3470e+00,-2.2730e+00, 5.1800e-01,-6.9300e-01,
      1.8780e+00, 1.1580e+00, 1.3940e+00,-1.2400e-01, 2.0500e-01, 9.7700e-01,
     -3.2600e-01,-1.1050e+00, 2.9770e+00, 1.5630e+00,-1.6350e+00, 7.6300e-01,
     -4.0600e+00,-2.2510e+00,-2.6430e+00, 3.2700e+00, 5.1130e+00, 7.6010e+00,
      5.5110e+00, 5.3290e+00,-2.6580e+00,-1.9400e+00, 3.7720e+00
    },
    { 2.6300e-01,-1.6980e+00,-7.6800e-01, 1.4210e+00,-1.1270e+00,-2.1330e+00,
     -1.9800e-01, 1.3700e+00,-5.4000e-02, 1.2040e+00, 1.1960e+00, 9.5100e-01,
     -7.7300e-01,-2.9500e-01,-4.4260e+00,-2.3180e+00, 3.4000e-01,-7.7300e-01,
      1.7940e+00, 1.1110e+00, 1.4110e+00,-8.9000e-02, 2.7700e-01, 1.0260e+00,
     -1.7800e-01,-1.0720e+00, 2.8690e+00, 1.6120e+00,-1.6410e+00, 8.2200e-01,
     -4.0930e+00,-2.9630e+00,-2.2310e+00, 2.3190e+00, 4.6090e+00, 8.1760e+00,
      5.2400e+00, 4.7420e+00,-2.6150e+00,-1.3860e+00, 4.0260e+00
    },
    { 2.9400e-01,-1.6650e+00,-8.6100e-01, 1.3020e+00,-1.0750e+00,-2.2850e+00,
     -4.8000e-02, 1.2220e+00,-8.9000e-02, 1.1560e+00, 1.1130e+00, 9.5200e-01,
     -9.1900e-01,-2.3200e-01,-4.6800e+00,-2.1210e+00, 4.3000e-01,-8.5000e-01,
      1.7290e+00, 1.3230e+00, 1.3640e+00,-1.4400e-01, 1.4900e-01, 1.1530e+00,
     -5.7000e-02,-8.8000e-01, 2.8210e+00, 1.7120e+00,-1.6490e+00, 6.8900e-01,
     -3.6530e+00,-2.1410e+00,-2.2100e+00, 1.9250e+00, 4.5990e+00, 7.5210e+00,
      5.0630e+00, 4.6660e+00,-2.8470e+00,-1.3450e+00, 3.3070e+00
    },
    { 2.9300e-01,-1.5410e+00,-6.8100e-01, 1.2050e+00,-8.0700e-01,-2.1680e+00,
      4.4000e-02, 1.1490e+00,-1.0600e-01, 9.6900e-01, 1.0850e+00, 8.9700e-01,
     -9.2900e-01,-3.1200e-01,-4.6190e+00,-2.4140e+00, 4.3100e-01,-5.3100e-01,
      1.8240e+00, 1.2940e+00, 1.3720e+00,-2.3000e-01, 2.4000e-01, 1.0410e+00,
     -1.4500e-01,-8.4700e-01, 2.8460e+00, 1.6910e+00,-1.7320e+00, 6.3600e-01,
     -3.6620e+00,-1.9360e+00,-2.3890e+00, 1.6320e+00, 4.6970e+00, 7.3250e+00,
      4.8650e+00, 5.0510e+00,-2.9590e+00,-1.9660e+00, 2.5800e+00
    },
    { 3.2100e-01,-1.8110e+00,-6.3200e-01, 1.0100e+00,-8.0600e-01,-2.1410e+00,
      1.6400e-01, 1.2250e+00,-1.4300e-01, 1.0500e+00, 1.1350e+00, 8.8400e-01,
     -1.0820e+00,-2.5700e-01,-4.7430e+00,-2.5670e+00, 2.7600e-01,-5.7500e-01,
      1.7950e+00, 1.2640e+00, 1.4040e+00,-2.7400e-01, 1.6200e-01, 1.0340e+00,
     -3.5000e-02,-7.5200e-01, 2.9390e+00, 1.5700e+00,-1.5590e+00, 6.3500e-01,
     -3.5190e+00,-2.2090e+00,-2.2840e+00, 1.5740e+00, 5.5770e+00, 7.1370e+00,
      5.5030e+00, 4.7620e+00,-3.3240e+00,-1.6370e+00, 2.9180e+00
    },
    { 3.7200e-01,-1.9670e+00,-4.3300e-01, 1.0420e+00,-6.4300e-01,-2.2020e+00,
      2.0200e-01, 1.1080e+00,-1.1600e-01, 9.7600e-01, 1.0910e+00, 1.0590e+00,
     -1.2420e+00,-2.5400e-01,-4.6660e+00,-2.6040e+00, 2.6900e-01,-4.9200e-01,
      1.7160e+00, 1.1780e+00, 1.4150e+00,-2.2100e-01, 1.6900e-01, 1.0740e+00,
     -1.7000e-01,-7.3800e-01, 3.0450e+00, 1.5000e+00,-1.5280e+00, 8.0600e-01,
     -3.2380e+00,-2.0880e+00,-1.9170e+00, 1.4760e+00, 5.5750e+00, 7.0780e+00,
      5.4490e+00, 5.2240e+00,-3.4060e+00,-1.9470e+00, 3.1210e+00
    },
    { 3.0700e-01,-1.9000e+00,-3.6300e-01, 1.1050e+00,-9.3800e-01,-2.4260e+00,
      2.4000e-02, 1.1970e+00,-1.8200e-01, 1.0740e+00, 1.0080e+00, 1.0430e+00,
     -1.1800e+00,-1.4200e-01,-4.4580e+00,-2.5930e+00, 1.7800e-01,-5.0700e-01,
      1.6680e+00, 1.0210e+00, 1.4510e+00,-6.2000e-02, 4.6300e-01, 8.6200e-01,
      1.8000e-02,-5.8100e-01, 2.9410e+00, 1.6000e+00,-1.4240e+00, 8.2500e-01,
     -3.3020e+00,-2.4980e+00,-1.4470e+00, 2.0530e+00, 5.1120e+00, 7.3080e+00,
      5.3020e+00, 5.1940e+00,-2.8260e+00,-1.7830e+00, 2.7180e+00
    },
    { 2.0500e-01,-1.9780e+00,-1.8800e-01, 9.2400e-01,-8.4300e-01,-2.3780e+00,
      3.0000e-03, 1.1240e+00,-1.1000e-01, 9.9500e-01, 1.0330e+00, 1.0710e+00,
     -1.3030e+00,-2.6000e-01,-4.4880e+00,-2.6020e+00, 2.1400e-01,-5.2000e-01,
      1.8580e+00, 1.1220e+00, 1.6730e+00,-9.8000e-02, 3.9900e-01, 7.0600e-01,
     -1.2500e-01,-3.9400e-01, 2.7560e+00, 1.6350e+00,-1.6570e+00, 6.9400e-01,
     -3.2070e+00,-2.5900e+00,-7.4200e-01, 2.3960e+00, 5.7430e+00, 7.0440e+00,
      4.8170e+00, 5.0280e+00,-3.3850e+00,-1.3090e+00, 2.6440e+00
    },
    { 9.5000e-02,-1.8870e+00,-2.9000e-01, 9.5500e-01,-1.0000e+00,-2.3510e+00,
      1.1700e-01, 1.0680e+00,-2.4000e-02, 7.6300e-01, 8.7700e-01, 9.1000e-01,
     -1.2420e+00,-2.3600e-01,-4.4760e+00,-2.3820e+00, 1.7200e-01,-6.5500e-01,
      1.7150e+00, 9.0500e-01, 1.6090e+00,-2.9300e-01, 3.5200e-01, 7.4300e-01,
     -2.6000e-02,-2.3600e-01, 2.6970e+00, 1.9030e+00,-1.7570e+00, 8.6300e-01,
     -3.2470e+00,-1.9600e+00,-1.1550e+00, 2.2820e+00, 5.8710e+00, 7.4740e+00,
      4.7740e+00, 5.2460e+00,-3.7400e+00,-8.1300e-01, 1.6610e+00
    },
    {-1.0000e-02,-1.6990e+00,-1.0700e-01, 6.3900e-01,-1.0500e+00,-1.9180e+00,
      5.0000e-03, 8.5100e-01,-3.8000e-01, 9.7600e-01, 6.9400e-01, 9.6100e-01,
     -1.5730e+00,-5.4000e-02,-4.4230e+00,-2.0080e+00, 2.1600e-01,-8.1100e-01,
      1.7070e+00, 9.0000e-01, 1.7890e+00,-6.0800e-01, 2.0700e-01, 7.5500e-01,
      6.2000e-02,-1.5500e-01, 2.3960e+00, 1.4450e+00,-1.8530e+00, 8.7900e-01,
     -3.1280e+00,-2.1730e+00,-9.9000e-01, 2.5760e+00, 5.7910e+00, 6.8660e+00,
      5.5830e+00, 5.7120e+00,-2.9900e+00,-1.1810e+00, 2.2910e+00
    },
    {-2.0900e-01,-1.7250e+00,-3.0500e-01, 4.2200e-01,-9.0600e-01,-1.6640e+00,
      8.6000e-02, 6.8900e-01,-5.0700e-01, 7.7800e-01, 7.3200e-01, 9.4700e-01,
     -1.6710e+00,-1.5800e-01,-4.5360e+00,-1.9850e+00, 1.9500e-01,-6.8200e-01,
      1.6700e+00, 7.1600e-01, 1.7860e+00,-7.1900e-01, 2.3500e-01, 8.7100e-01,
     -4.0000e-03,-1.5000e-02, 2.6350e+00, 1.4660e+00,-1.9380e+00, 7.1800e-01,
     -2.8480e+00,-2.7460e+00,-1.2360e+00, 2.7130e+00, 5.2370e+00, 7.1650e+00,
      5.4920e+00, 6.0410e+00,-3.0400e+00,-1.4490e+00, 2.3880e+00
    },
    {-2.8700e-01,-1.7090e+00,-1.8900e-01, 3.9400e-01,-5.4300e-01,-1.5400e+00,
      2.1100e-01, 8.8800e-01,-3.8600e-01, 8.2200e-01, 7.7800e-01, 9.6800e-01,
     -1.6730e+00,-1.7300e-01,-4.5820e+00,-1.7810e+00, 3.0200e-01,-6.3700e-01,
      1.6650e+00, 6.9800e-01, 2.0240e+00,-5.7000e-01, 2.4600e-01, 8.9200e-01,
     -8.8000e-02, 1.3600e-01, 2.6620e+00, 1.3700e+00,-1.9440e+00, 6.4800e-01,
     -2.3480e+00,-2.4410e+00,-1.4180e+00, 3.3890e+00, 5.5390e+00, 7.2670e+00,
      5.3080e+00, 6.0350e+00,-2.3970e+00,-2.1790e+00, 1.7910e+00
    },
    {-3.1100e-01,-1.6390e+00,-2.2700e-01, 2.3400e-01,-6.3800e-01,-1.5630e+00,
      2.7500e-01, 9.6500e-01,-3.7800e-01, 7.2300e-01, 1.0060e+00, 1.1210e+00,
     -1.7120e+00,-1.2200e-01,-4.4030e+00,-1.8490e+00, 4.1000e-01,-6.6500e-01,
      1.6710e+00, 7.9100e-01, 1.8880e+00,-6.7500e-01, 4.7300e-01, 5.5600e-01,
     -1.2000e-02, 2.8800e-01, 2.6940e+00, 1.3490e+00,-1.9170e+00, 8.1500e-01,
     -2.6760e+00,-1.4850e+00,-4.7400e-01, 3.0570e+00, 5.4560e+00, 7.2840e+00,
      5.3640e+00, 5.4010e+00,-2.3940e+00,-2.4550e+00, 1.9850e+00
    },
    {-3.3300e-01,-1.8870e+00,-9.0000e-03, 8.5000e-02,-4.5500e-01,-1.5030e+00,
      1.0200e-01, 1.1690e+00, 8.6000e-02, 6.8200e-01, 7.9300e-01, 7.4000e-01,
     -1.3690e+00, 7.9000e-02,-4.9510e+00,-2.3270e+00, 9.8200e-01,-1.1130e+00,
      2.1090e+00, 9.0500e-01, 2.0620e+00,-3.2500e-01, 6.4900e-01, 5.2700e-01,
     -2.9500e-01, 3.7400e-01, 2.6950e+00, 1.2010e+00,-2.0130e+00, 5.6300e-01,
     -2.5130e+00,-1.8620e+00,-4.1200e-01, 2.5440e+00, 5.5250e+00, 5.9340e+00,
      5.0730e+00, 3.7450e+00,-1.9560e+00,-2.1360e+00, 1.5110e+00
    },
    {-3.7400e-01,-1.9690e+00,-7.3000e-02, 1.0600e-01,-5.9400e-01,-1.5980e+00,
      1.3500e-01, 1.0340e+00, 4.0000e-02, 8.1900e-01, 1.0130e+00, 9.4100e-01,
     -1.5540e+00,-1.7200e-01,-4.9010e+00,-2.3520e+00, 7.9700e-01,-1.2650e+00,
      1.9580e+00, 7.2100e-01, 1.8580e+00,-5.3200e-01, 8.7100e-01, 5.2100e-01,
     -3.7700e-01,-3.6000e-02, 2.6640e+00, 1.1980e+00,-2.0610e+00, 4.0300e-01,
     -2.4520e+00,-1.9270e+00,-8.5200e-01, 2.4460e+00, 5.1300e+00, 5.8860e+00,
      5.1500e+00, 3.8650e+00,-2.0610e+00,-1.9280e+00, 1.8610e+00
    },
    {-2.8200e-01,-1.7640e+00,-2.3700e-01, 1.5800e-01,-4.2400e-01,-1.5160e+00,
      3.9300e-01, 1.2620e+00, 7.7000e-02, 8.2400e-01, 9.0000e-01, 9.2900e-01,
     -1.6330e+00,-1.1300e-01,-4.6750e+00,-2.1770e+00, 8.3200e-01,-1.3160e+00,
      2.0770e+00, 7.1100e-01, 2.0070e+00,-8.4900e-01, 7.9100e-01, 6.2300e-01,
     -4.6800e-01,-3.8000e-02, 2.6620e+00, 1.1930e+00,-2.0080e+00, 4.5300e-01,
     -2.6000e+00,-1.8520e+00,-1.2090e+00, 2.5330e+00, 5.4170e+00, 5.7930e+00,
      5.9850e+00, 3.9950e+00,-2.8470e+00,-2.3510e+00, 1.4290e+00
    },
    {-3.6400e-01,-1.7570e+00,-2.1700e-01, 1.4700e-01,-2.4200e-01,-1.5650e+00,
      3.8400e-01, 1.2500e+00, 1.8800e-01, 1.1050e+00, 8.9700e-01, 8.5200e-01,
     -1.6830e+00,-1.0700e-01,-4.7740e+00,-2.2050e+00, 8.8200e-01,-1.3540e+00,
      2.1180e+00, 8.6700e-01, 1.8380e+00,-6.7400e-01, 6.9100e-01, 8.6400e-01,
     -2.7500e-01, 7.7000e-02, 2.4980e+00, 1.2320e+00,-2.0600e+00, 6.6200e-01,
     -2.6530e+00,-2.0370e+00,-1.7960e+00, 1.9830e+00, 5.5140e+00, 6.3300e+00,
      6.7510e+00, 4.5120e+00,-2.3110e+00,-1.7700e+00, 1.8040e+00
    },
    {-6.2400e-01,-1.9950e+00,-1.9200e-01, 1.5000e-01,-3.9500e-01,-1.5600e+00,
      4.6600e-01, 1.2290e+00, 9.0000e-03, 1.0690e+00, 1.0850e+00, 8.5000e-01,
     -1.7100e+00,-1.6900e-01,-4.7850e+00,-2.1740e+00, 8.1600e-01,-1.3770e+00,
      1.9150e+00, 7.4600e-01, 1.9210e+00,-7.2500e-01, 6.7400e-01, 7.7100e-01,
     -4.0800e-01, 3.1000e-02, 2.5420e+00, 1.1640e+00,-1.9380e+00, 5.0300e-01,
     -2.5990e+00,-1.6630e+00,-1.5660e+00, 1.9140e+00, 5.5510e+00, 6.3270e+00,
      7.0860e+00, 4.0720e+00,-2.1380e+00,-2.2990e+00, 1.9460e+00
    },
    {-7.6500e-01,-2.3630e+00,-1.8700e-01, 8.6000e-02,-3.3200e-01,-1.5870e+00,
      3.9400e-01, 1.4480e+00, 6.0000e-02, 1.2200e+00, 9.9400e-01, 1.0750e+00,
     -1.7670e+00,-4.3400e-01,-4.6440e+00,-1.9790e+00, 8.9400e-01,-1.3490e+00,
      1.7680e+00, 8.1400e-01, 1.7380e+00,-8.4900e-01, 4.8100e-01, 9.3500e-01,
     -1.6700e-01,-2.3600e-01, 2.5080e+00, 1.0810e+00,-1.8870e+00, 7.3900e-01,
     -2.4350e+00,-1.0810e+00,-1.5730e+00, 1.7670e+00, 5.8260e+00, 6.3560e+00,
      6.6820e+00, 3.7910e+00,-1.6450e+00,-2.6110e+00, 1.7220e+00
    },
    {-5.3700e-01,-2.5200e+00,-2.7400e-01, 3.9000e-02,-1.8000e-01,-1.4450e+00,
      2.7700e-01, 1.2670e+00, 1.4900e-01, 1.1960e+00, 9.3700e-01, 9.8700e-01,
     -1.8720e+00,-4.2600e-01,-4.7090e+00,-2.1780e+00, 8.6400e-01,-1.5010e+00,
      1.7160e+00, 5.9900e-01, 1.8030e+00,-6.6100e-01, 2.2800e-01, 8.3600e-01,
     -1.7500e-01,-2.7400e-01, 2.3380e+00, 1.0710e+00,-1.8090e+00, 5.9300e-01,
     -2.2640e+00,-1.0860e+00,-1.1110e+00, 1.6770e+00, 5.7830e+00, 6.1470e+00,
      6.6840e+00, 4.4750e+00,-1.1920e+00,-2.3570e+00, 1.4780e+00
    },
    {-9.6100e-01,-2.1870e+00,-6.1000e-02, 2.8000e-01,-4.6600e-01,-1.8230e+00,
      4.2400e-01, 1.2290e+00,-6.3000e-02, 1.1730e+00, 8.6800e-01, 8.5600e-01,
     -1.8040e+00,-3.4900e-01,-4.8310e+00,-2.1990e+00, 1.1640e+00,-1.3980e+00,
      1.7330e+00, 5.3200e-01, 1.9580e+00,-8.7600e-01, 4.9100e-01, 7.7000e-01,
      6.8000e-02,-3.5000e-02, 2.3870e+00, 9.5000e-01,-1.8090e+00, 7.7600e-01,
     -2.3960e+00,-2.0570e+00,-7.6000e-01, 1.3040e+00, 5.9400e+00, 6.2270e+00,
      6.7100e+00, 4.8190e+00,-2.7200e-01,-2.2930e+00, 1.3120e+00
    },
    {-1.2360e+00,-2.2090e+00, 7.0000e-03, 4.0000e-01,-2.8600e-01,-2.2110e+00,
      3.4600e-01, 1.0330e+00, 1.5200e-01, 1.2790e+00, 1.0150e+00, 1.1340e+00,
     -1.9340e+00,-2.4200e-01,-4.8780e+00,-2.1350e+00, 1.1660e+00,-1.5010e+00,
      2.0030e+00, 4.0100e-01, 1.6750e+00,-9.7200e-01, 4.3500e-01, 5.0500e-01,
     -1.2600e-01,-1.8700e-01, 2.1640e+00, 8.9800e-01,-1.8280e+00, 1.0840e+00,
     -2.3120e+00,-1.4790e+00,-5.6100e-01, 1.3730e+00, 6.1620e+00, 6.4050e+00,
      7.5140e+00, 5.1130e+00,-1.1200e+00,-1.6840e+00, 4.9600e-01
    },
    {-1.1490e+00,-2.2490e+00, 3.1000e-02, 5.5600e-01,-4.1100e-01,-2.0990e+00,
      4.3600e-01, 1.0940e+00, 5.5000e-02, 1.2810e+00, 7.3600e-01, 1.1080e+00,
     -1.8900e+00,-4.2200e-01,-4.5930e+00,-2.1310e+00, 1.1130e+00,-1.5770e+00,
      1.7920e+00, 7.1600e-01, 1.6510e+00,-1.0100e+00, 6.7200e-01, 6.4000e-01,
      1.1300e-01,-2.9600e-01, 2.0600e+00, 7.6700e-01,-1.5900e+00, 8.1800e-01,
     -2.3760e+00,-1.7230e+00, 1.3100e-01, 1.8330e+00, 6.3880e+00, 6.1760e+00,
      7.6310e+00, 5.1450e+00,-5.3000e-02,-2.2630e+00, 1.0330e+00
    },
    {-9.3000e-01,-2.2450e+00, 2.0000e-01, 1.8900e-01,-1.4300e-01,-2.4730e+00,
      3.8100e-01, 5.0500e-01, 2.0800e-01, 1.3880e+00, 5.8600e-01, 1.2930e+00,
     -2.0120e+00,-7.2700e-01,-4.7640e+00,-2.1950e+00, 1.3040e+00,-1.6880e+00,
      1.7920e+00, 6.2800e-01, 1.9100e+00,-1.1460e+00, 6.5100e-01, 5.4900e-01,
      1.6900e-01,-4.4900e-01, 1.8140e+00, 7.7700e-01,-2.0450e+00, 8.1500e-01,
     -2.2370e+00,-2.5280e+00, 6.9000e-02, 1.8480e+00, 6.1010e+00, 6.1510e+00,
      6.7700e+00, 5.3080e+00,-3.3500e-01,-1.9830e+00, 4.9000e-02
    },
    {-1.1500e+00,-2.4700e+00, 3.1100e-01, 2.9900e-01,-3.6900e-01,-2.2640e+00,
      4.4100e-01, 7.5700e-01, 2.5100e-01, 1.3710e+00, 4.6900e-01, 1.2470e+00,
     -2.1340e+00,-5.4100e-01,-4.6430e+00,-2.1590e+00, 1.3490e+00,-1.5790e+00,
      1.8060e+00, 7.3000e-01, 1.7560e+00,-1.0570e+00, 7.3200e-01, 5.2200e-01,
      5.9000e-02,-2.2600e-01, 1.8330e+00, 5.8600e-01,-1.9960e+00, 8.6500e-01,
     -2.2620e+00,-2.8820e+00, 1.6000e-02, 2.8020e+00, 5.8510e+00, 6.9420e+00,
      6.8940e+00, 5.2500e+00,-9.0000e-03,-1.6910e+00, 4.0100e-01
    },
    {-1.1740e+00,-2.5430e+00, 3.1100e-01, 3.5700e-01,-3.6800e-01,-2.1520e+00,
      5.6900e-01, 7.9800e-01, 2.2800e-01, 1.1950e+00, 6.0500e-01, 1.3230e+00,
     -2.0480e+00,-2.8000e-01,-4.7320e+00,-2.4700e+00, 1.4330e+00,-1.7450e+00,
      1.8240e+00, 7.6500e-01, 1.5480e+00,-9.3300e-01, 7.5300e-01, 5.5100e-01,
      1.0900e-01,-7.7000e-02, 2.2640e+00, 4.3400e-01,-2.1430e+00, 1.0490e+00,
     -2.2160e+00,-3.2520e+00, 3.7700e-01, 1.9640e+00, 5.5560e+00, 6.9710e+00,
      6.3530e+00, 5.6630e+00,-1.0000e-03,-1.7780e+00, 2.8000e-01
    },
    {-1.2890e+00,-2.7860e+00, 2.9900e-01, 1.0200e-01,-2.6900e-01,-2.1860e+00,
      4.2700e-01, 5.0600e-01, 5.7700e-01, 1.2600e+00, 5.0500e-01, 1.1430e+00,
     -1.7150e+00,-2.3400e-01,-4.7390e+00,-2.4760e+00, 1.6360e+00,-1.8940e+00,
      1.8290e+00, 5.4000e-01, 1.5310e+00,-7.9000e-01, 7.5100e-01, 9.4200e-01,
      3.7700e-01,-8.3000e-02, 2.0720e+00, 4.8600e-01,-2.4180e+00, 1.0190e+00,
     -2.2060e+00,-2.7170e+00,-5.3500e-01, 2.9570e+00, 5.2490e+00, 7.1350e+00,
      6.8060e+00, 5.4050e+00, 2.7800e-01,-1.8720e+00, 3.0000e-03
    },
    {-1.4220e+00,-2.4020e+00, 3.4500e-01, 1.3800e-01,-4.5400e-01,-2.1430e+00,
      3.3800e-01, 6.1500e-01, 5.1100e-01, 1.0890e+00, 5.7900e-01, 1.2080e+00,
     -1.7450e+00,-1.5700e-01,-4.6640e+00,-2.5300e+00, 1.5340e+00,-1.8700e+00,
      1.9530e+00, 6.5700e-01, 1.4730e+00,-9.6600e-01, 5.5200e-01, 7.0400e-01,
      2.1200e-01,-9.8000e-02, 2.0320e+00, 3.8400e-01,-2.3500e+00, 1.1090e+00,
     -2.7950e+00,-2.9950e+00, 2.3800e-01, 3.0380e+00, 5.7010e+00, 7.4460e+00,
      7.2820e+00, 5.4260e+00,-2.4100e-01,-1.2950e+00, 4.8800e-01
    },
    {-1.4890e+00,-2.5990e+00, 8.0000e-02, 3.0200e-01,-7.6300e-01,-2.1450e+00,
      6.7100e-01, 8.0700e-01, 8.0500e-01, 1.0520e+00, 3.1000e-01, 1.0220e+00,
     -1.4320e+00,-3.0700e-01,-4.4640e+00,-2.8900e+00, 1.5900e+00,-2.1350e+00,
      2.0530e+00, 7.9000e-01, 1.5450e+00,-1.1980e+00, 5.7800e-01, 8.6800e-01,
      1.0000e-01,-1.1700e-01, 1.8870e+00,-1.3000e-01,-2.9560e+00, 1.3570e+00,
     -3.3050e+00,-2.1910e+00,-7.2000e-02, 3.2510e+00, 5.9210e+00, 7.3260e+00,
      7.4460e+00, 5.0550e+00, 2.3000e-02,-1.0500e+00, 1.1100e-01
    },
    {-1.3670e+00,-2.3440e+00, 2.2900e-01, 5.8700e-01,-9.9800e-01,-1.9860e+00,
      6.9800e-01, 6.8100e-01, 6.4600e-01, 1.0700e+00, 2.0200e-01, 1.0850e+00,
     -1.3170e+00,-3.7700e-01,-4.3940e+00,-2.8550e+00, 1.5530e+00,-2.0110e+00,
      2.3400e+00, 8.9900e-01, 1.5910e+00,-1.3020e+00, 5.3300e-01, 9.5700e-01,
      2.1600e-01,-3.0000e-01, 1.7390e+00,-1.6200e-01,-2.7860e+00, 1.2720e+00,
     -3.9280e+00,-2.8560e+00, 6.0000e-02, 3.2300e+00, 5.3780e+00, 6.9330e+00,
      7.0180e+00, 4.6540e+00, 2.2000e-01,-1.6000e-02, 6.4000e-02
    },
    {-1.3440e+00,-2.2510e+00,-2.9000e-01, 6.5800e-01,-1.4030e+00,-2.2220e+00,
      7.0800e-01, 8.1200e-01, 6.1300e-01, 1.2890e+00, 1.1400e-01, 8.5800e-01,
     -1.2080e+00, 9.3000e-02,-4.6570e+00,-2.9510e+00, 1.3380e+00,-2.1770e+00,
      2.6790e+00, 1.3890e+00, 1.7120e+00,-1.0660e+00, 4.4400e-01, 4.0100e-01,
      3.6800e-01,-4.4800e-01, 1.6790e+00,-2.2500e-01,-2.6640e+00, 1.2030e+00,
     -4.5470e+00,-2.8220e+00, 6.5400e-01, 3.0140e+00, 5.8880e+00, 6.9670e+00,
      7.4600e+00, 3.9530e+00, 1.8900e-01,-8.8000e-02,-6.0000e-02
    },
    {-1.4360e+00,-2.2600e+00,-1.0900e-01, 6.7000e-01,-1.2060e+00,-2.2360e+00,
      6.5300e-01, 7.2700e-01, 5.3400e-01, 1.0300e+00, 9.2000e-02, 1.0020e+00,
     -1.3240e+00,-1.5900e-01,-4.5760e+00,-2.7770e+00, 1.4580e+00,-2.0000e+00,
      2.5870e+00, 1.1910e+00, 1.7190e+00,-1.1230e+00, 4.4800e-01, 3.9800e-01,
      1.4300e-01,-5.0300e-01, 1.7620e+00,-8.6000e-02,-2.7300e+00, 1.2150e+00,
     -4.2890e+00,-2.8340e+00, 7.3100e-01, 3.4270e+00, 5.1340e+00, 6.1490e+00,
      7.7630e+00, 4.6870e+00, 2.1900e-01,-1.7100e+00, 4.1100e-01
    },
    {-1.3680e+00,-2.3550e+00, 7.9000e-02, 7.5000e-01,-1.1730e+00,-2.1370e+00,
      7.4400e-01, 3.9700e-01, 5.4800e-01, 1.0330e+00, 2.7600e-01, 9.4200e-01,
     -1.3760e+00,-2.4000e-01,-4.4740e+00,-2.8580e+00, 1.5110e+00,-2.1380e+00,
      2.7800e+00, 1.1360e+00, 1.8000e+00,-1.0120e+00, 6.1000e-01, 7.8000e-01,
      4.8100e-01,-5.2700e-01, 1.6650e+00,-4.0000e-02,-2.5970e+00, 1.4900e+00,
     -4.0710e+00,-3.7920e+00, 5.8000e-02, 3.6980e+00, 5.5250e+00, 6.4560e+00,
      8.3820e+00, 4.8740e+00, 4.5800e-01,-1.7940e+00, 1.1960e+00
    },
    {-1.2610e+00,-2.0670e+00, 1.5000e-02, 7.0200e-01,-1.0870e+00,-2.3830e+00,
      6.2500e-01, 3.5900e-01, 2.9300e-01, 1.0240e+00, 4.8600e-01, 8.4600e-01,
     -1.2010e+00,-5.9400e-01,-4.1700e+00,-3.2650e+00, 1.5570e+00,-1.8660e+00,
      2.7090e+00, 6.8700e-01, 1.8770e+00,-1.1950e+00, 3.4600e-01, 1.1880e+00,
     -7.0000e-02,-7.1600e-01, 1.9690e+00, 1.4000e-01,-2.8220e+00, 1.8360e+00,
     -4.6730e+00,-4.2690e+00,-1.5000e-02, 3.7410e+00, 4.9340e+00, 5.4940e+00,
      7.4820e+00, 4.2320e+00, 4.0800e-01,-2.7340e+00, 6.2200e-01
    },
    {-9.6000e-01,-1.9680e+00,-1.3600e-01, 7.0300e-01,-1.1530e+00,-2.4230e+00,
      6.0800e-01, 2.5300e-01, 6.7300e-01, 1.2210e+00, 6.0000e-01, 7.8600e-01,
     -1.0850e+00,-5.0100e-01,-3.9990e+00,-3.2440e+00, 1.3410e+00,-1.8290e+00,
      2.7180e+00, 6.4600e-01, 2.0800e+00,-1.1300e+00, 3.8400e-01, 1.1020e+00,
      3.4000e-02,-6.0100e-01, 1.7050e+00, 2.7200e-01,-2.8850e+00, 1.8670e+00,
     -4.7770e+00,-3.3820e+00,-3.6000e-02, 3.9630e+00, 5.6480e+00, 5.5290e+00,
      7.2450e+00, 3.8700e+00, 2.1900e-01,-3.2300e+00, 1.2050e+00
    },
    {-1.2030e+00,-1.8020e+00, 2.0000e-02, 5.7400e-01,-1.3230e+00,-2.3730e+00,
      6.2800e-01, 2.9700e-01, 5.9000e-01, 1.1410e+00, 6.2500e-01, 9.2400e-01,
     -9.1500e-01,-7.0300e-01,-4.0060e+00,-3.1010e+00, 1.4330e+00,-2.0330e+00,
      2.3420e+00, 4.8500e-01, 1.8700e+00,-1.0740e+00, 4.7700e-01, 8.6500e-01,
      8.9000e-02,-7.3200e-01, 1.8740e+00, 2.8300e-01,-3.0780e+00, 1.8140e+00,
     -5.5150e+00,-3.3300e+00,-5.4700e-01, 3.9890e+00, 4.9370e+00, 6.0110e+00,
      7.4230e+00, 4.1170e+00,-3.4500e-01,-3.5350e+00, 7.8300e-01
    },
    {-1.1800e+00,-2.0170e+00,-1.8600e-01, 2.6100e-01,-1.1420e+00,-2.2190e+00,
      6.6800e-01, 6.3500e-01, 3.2900e-01, 9.6600e-01, 3.3000e-01, 7.9800e-01,
     -1.0290e+00,-4.5700e-01,-3.9550e+00,-3.0820e+00, 1.2370e+00,-2.1490e+00,
      2.6060e+00, 7.4100e-01, 1.9020e+00,-1.0960e+00, 3.4500e-01, 7.6600e-01,
      6.3000e-02,-7.2100e-01, 1.7430e+00, 3.7300e-01,-2.9060e+00, 1.6790e+00,
     -5.1270e+00,-3.5830e+00,-6.2300e-01, 4.1050e+00, 3.8170e+00, 6.4960e+00,
      6.6550e+00, 4.7830e+00, 7.4600e-01,-3.1210e+00, 5.3000e-01
    },
    {-9.4300e-01,-1.8490e+00,-1.5800e-01,-1.2100e-01,-1.1690e+00,-2.4850e+00,
      1.0100e+00, 5.4000e-01, 4.1000e-01, 1.1390e+00, 9.3000e-02, 1.0700e+00,
     -1.3270e+00,-3.5500e-01,-4.0080e+00,-2.9040e+00, 1.1280e+00,-2.0270e+00,
      2.5390e+00, 1.1730e+00, 1.9090e+00,-1.2550e+00, 2.1300e-01, 5.4600e-01,
     -3.2500e-01,-6.7300e-01, 1.2990e+00, 9.5000e-02,-2.7220e+00, 1.8200e+00,
     -5.2390e+00,-4.1810e+00,-1.2740e+00, 3.9310e+00, 4.0590e+00, 7.2250e+00,
      6.5070e+00, 4.4700e+00, 5.6600e-01,-2.5720e+00, 9.9700e-01
    },
    {-1.2080e+00,-1.9950e+00,-1.3700e-01, 1.7900e-01,-1.0850e+00,-2.5460e+00,
      9.3400e-01, 7.1800e-01, 2.5600e-01, 8.1900e-01, 1.4500e-01, 8.6600e-01,
     -1.1420e+00,-5.3400e-01,-3.9570e+00,-3.0090e+00, 1.0530e+00,-2.1010e+00,
      2.5110e+00, 1.0350e+00, 1.8560e+00,-1.1410e+00, 3.7300e-01, 5.1200e-01,
     -1.8200e-01,-6.6900e-01, 1.4670e+00, 6.7000e-02,-2.7870e+00, 1.6170e+00,
     -5.6640e+00,-4.5750e+00,-1.7210e+00, 4.6780e+00, 3.9930e+00, 7.8670e+00,
      6.9330e+00, 4.7490e+00, 1.0300e-01,-2.3150e+00, 1.3700e+00
    },
    {-1.2320e+00,-1.7340e+00, 2.3000e-02, 6.3000e-02,-1.2460e+00,-2.6400e+00,
      9.6700e-01, 9.1600e-01, 2.0500e-01, 7.5900e-01, 4.0000e-02, 1.1990e+00,
     -1.1520e+00,-4.0500e-01,-3.7180e+00,-3.0570e+00, 1.1850e+00,-2.1510e+00,
      2.6320e+00, 1.0850e+00, 2.0260e+00,-1.3320e+00, 5.3700e-01, 8.3100e-01,
     -4.6900e-01,-7.6400e-01, 1.5910e+00,-2.4000e-02,-2.7140e+00, 1.7010e+00,
     -4.9460e+00,-4.5420e+00,-1.9870e+00, 4.3980e+00, 4.4960e+00, 7.7930e+00,
      6.9140e+00, 4.5360e+00,-1.8000e-02,-2.4110e+00, 1.0940e+00
    },
    {-1.1320e+00,-1.6010e+00, 3.6000e-02, 1.2300e-01,-1.2050e+00,-2.6440e+00,
      9.2600e-01, 1.0550e+00, 2.5000e-01, 8.6400e-01, 1.1000e-01, 1.2420e+00,
     -1.1620e+00,-1.7800e-01,-3.6690e+00,-3.0840e+00, 1.2620e+00,-2.1600e+00,
      2.5820e+00, 8.7900e-01, 2.0150e+00,-1.2240e+00, 5.3900e-01, 8.3800e-01,
     -4.6300e-01,-7.5300e-01, 1.4090e+00, 1.0500e-01,-2.6930e+00, 1.6750e+00,
     -4.8550e+00,-4.3860e+00,-1.6600e+00, 3.9770e+00, 5.0950e+00, 7.8860e+00,
      6.4110e+00, 4.8920e+00, 4.1400e-01,-1.7720e+00, 1.4080e+00
    },
    {-1.1090e+00,-1.6630e+00,-5.9000e-02, 1.6100e-01,-1.0890e+00,-2.9440e+00,
      7.6800e-01, 1.0080e+00, 3.3700e-01, 8.2900e-01, 3.9000e-02, 1.0910e+00,
     -1.2090e+00,-3.5600e-01,-3.8090e+00,-3.3020e+00, 1.4090e+00,-2.3160e+00,
      2.7720e+00, 1.0690e+00, 1.9320e+00,-1.3030e+00, 7.2600e-01, 5.5800e-01,
     -4.6500e-01,-9.0900e-01, 1.2970e+00, 1.2900e-01,-2.5400e+00, 1.7080e+00,
     -4.9420e+00,-4.4700e+00,-1.2090e+00, 4.4150e+00, 4.8640e+00, 7.9620e+00,
      6.5610e+00, 5.0730e+00,-2.2000e-02,-1.8940e+00, 9.6100e-01
    },
    {-1.0060e+00,-1.5030e+00,-3.3000e-02, 1.2300e-01,-7.9300e-01,-2.9930e+00,
      7.2800e-01, 1.1460e+00, 4.6900e-01, 8.5500e-01, 9.4000e-02, 1.1320e+00,
     -1.1770e+00,-3.2600e-01,-3.7070e+00,-3.5810e+00, 1.8020e+00,-2.4600e+00,
      2.8750e+00, 1.1500e+00, 2.2540e+00,-1.3390e+00, 7.5200e-01, 5.6600e-01,
     -3.6200e-01,-8.2000e-01, 1.6020e+00,-1.1100e-01,-2.4860e+00, 1.7030e+00,
     -4.8380e+00,-5.3050e+00,-1.2770e+00, 3.8930e+00, 5.0930e+00, 8.2850e+00,
      6.4730e+00, 4.8870e+00, 1.0000e-03,-2.5730e+00, 1.3750e+00
    },
    {-1.0620e+00,-1.5960e+00, 5.3000e-02, 1.1400e-01,-8.1300e-01,-2.9600e+00,
      8.6100e-01, 1.0910e+00, 4.6800e-01, 1.0720e+00, 5.3000e-02, 1.0700e+00,
     -1.2590e+00,-3.8200e-01,-3.5210e+00,-3.4590e+00, 1.7960e+00,-2.5210e+00,
      2.9420e+00, 8.1400e-01, 2.3270e+00,-1.1970e+00, 6.8900e-01, 6.0200e-01,
     -3.4000e-01,-8.5500e-01, 1.5730e+00,-6.9000e-02,-2.5450e+00, 1.4980e+00,
     -5.4520e+00,-4.9430e+00,-1.2660e+00, 4.5300e+00, 5.4140e+00, 7.4840e+00,
      6.6340e+00, 4.7190e+00,-1.7500e-01,-2.3810e+00, 1.0850e+00
    },
    {-9.5800e-01,-1.6530e+00,-2.4400e-01, 2.9600e-01,-5.2500e-01,-2.8640e+00,
      1.1670e+00, 1.2160e+00, 4.5200e-01, 7.9600e-01, 8.6000e-02, 9.7800e-01,
     -1.1500e+00,-5.4700e-01,-3.2120e+00,-3.4420e+00, 1.7440e+00,-2.4290e+00,
      3.3970e+00, 1.0200e+00, 2.7300e+00,-1.1490e+00, 6.3700e-01, 6.2200e-01,
     -1.4200e-01,-6.4800e-01, 1.9180e+00,-1.6700e-01,-2.6680e+00, 1.3910e+00,
     -5.3980e+00,-5.4460e+00,-5.8500e-01, 4.5270e+00, 5.4270e+00, 8.3090e+00,
      6.9000e+00, 4.0030e+00, 4.6800e-01,-2.4720e+00, 1.2450e+00
    },
    {-8.8400e-01,-1.9060e+00, 1.1000e-01, 3.6200e-01,-5.9400e-01,-2.7220e+00,
      1.2040e+00, 1.1820e+00, 6.8900e-01, 1.1680e+00, 3.6300e-01, 8.9700e-01,
     -9.0600e-01,-2.1400e-01,-2.8670e+00,-3.5180e+00, 1.5550e+00,-2.6250e+00,
      3.1720e+00, 1.0360e+00, 2.9950e+00,-1.1710e+00, 8.4900e-01, 5.7500e-01,
     -1.9400e-01,-2.8100e-01, 1.6880e+00,-3.7000e-01,-2.8090e+00, 1.7630e+00,
     -5.1570e+00,-3.6040e+00,-4.7800e-01, 5.2950e+00, 6.1720e+00, 8.7640e+00,
      7.2810e+00, 4.1160e+00, 7.8500e-01,-2.7760e+00, 1.6450e+00
    },
    {-9.3100e-01,-1.8260e+00, 1.0000e-03, 2.0100e-01,-4.1600e-01,-2.8080e+00,
      1.1360e+00, 1.1830e+00, 7.9500e-01, 1.3680e+00, 4.0300e-01, 8.5200e-01,
     -1.0310e+00,-2.7600e-01,-2.9240e+00,-3.5940e+00, 1.6620e+00,-2.6750e+00,
      3.1590e+00, 1.0360e+00, 2.9450e+00,-1.2080e+00, 7.7900e-01, 5.1300e-01,
     -3.6800e-01,-7.8000e-02, 1.5170e+00,-4.1800e-01,-2.6420e+00, 1.7680e+00,
     -5.3200e+00,-4.7470e+00,-4.4200e-01, 4.7940e+00, 6.4220e+00, 9.2580e+00,
      7.1200e+00, 3.9320e+00, 2.5000e-01,-1.7610e+00, 2.2520e+00
    },
    {-8.8300e-01,-2.0120e+00, 7.3000e-02, 1.6100e-01,-3.0200e-01,-2.8310e+00,
      9.6900e-01, 1.1130e+00, 7.7100e-01, 1.3350e+00, 3.7500e-01, 6.7900e-01,
     -1.0400e+00,-2.0400e-01,-3.0850e+00,-3.4830e+00, 1.6810e+00,-2.6110e+00,
      3.2190e+00, 1.0910e+00, 2.9860e+00,-1.1680e+00, 6.4100e-01, 5.9900e-01,
     -2.3500e-01,-1.5900e-01, 1.6090e+00,-3.8700e-01,-2.6140e+00, 1.6610e+00,
     -4.7810e+00,-4.3050e+00,-1.5810e+00, 4.3380e+00, 6.6580e+00, 9.3060e+00,
      6.1590e+00, 3.5440e+00, 3.6400e-01,-2.0190e+00, 1.8230e+00
    },
    {-8.2400e-01,-2.0860e+00, 1.0800e-01, 7.0000e-02,-2.6600e-01,-2.7330e+00,
      9.7800e-01, 9.0600e-01, 7.5400e-01, 1.2190e+00, 4.4800e-01, 7.6400e-01,
     -1.0820e+00,-1.9700e-01,-3.0720e+00,-3.4900e+00, 1.7310e+00,-2.5980e+00,
      3.1570e+00, 1.2030e+00, 2.9190e+00,-1.2020e+00, 6.8200e-01, 7.0500e-01,
     -2.5100e-01,-3.1300e-01, 1.6490e+00,-5.5900e-01,-2.7810e+00, 1.5870e+00,
     -5.0310e+00,-3.7910e+00,-1.4140e+00, 4.6360e+00, 6.3910e+00, 9.4080e+00,
      6.3980e+00, 4.1190e+00, 1.7400e-01,-3.0740e+00, 2.1470e+00
    },
    {-6.3400e-01,-2.0300e+00, 2.3100e-01, 4.2800e-01, 5.0000e-02,-2.7750e+00,
      1.1400e+00, 9.6400e-01, 7.8300e-01, 1.4350e+00, 4.6200e-01, 7.8500e-01,
     -1.1920e+00,-2.0700e-01,-3.0420e+00,-3.3360e+00, 1.8040e+00,-2.5860e+00,
      3.1720e+00, 1.2600e+00, 3.0940e+00,-1.0170e+00, 6.6100e-01, 4.6800e-01,
     -2.0500e-01,-2.4200e-01, 1.5800e+00,-4.8100e-01,-2.9050e+00, 1.6550e+00,
     -5.2390e+00,-3.8500e+00,-1.4560e+00, 4.8950e+00, 6.5350e+00, 9.0230e+00,
      6.8040e+00, 4.9770e+00, 1.9000e-01,-3.4130e+00, 2.1450e+00
    },
    {-5.9600e-01,-2.1090e+00, 1.0600e-01, 4.8200e-01, 1.7900e-01,-2.8230e+00,
      1.0490e+00, 8.9500e-01, 8.3200e-01, 1.3700e+00, 4.9900e-01, 7.5500e-01,
     -1.1450e+00,-2.4200e-01,-3.1700e+00,-3.2800e+00, 1.9720e+00,-2.5050e+00,
      3.1700e+00, 1.2920e+00, 3.0490e+00,-1.0890e+00, 6.2300e-01, 4.8500e-01,
     -1.7700e-01,-2.7000e-01, 1.6220e+00,-5.0300e-01,-2.8650e+00, 1.5150e+00,
     -4.9330e+00,-3.4440e+00,-2.0530e+00, 4.6090e+00, 6.1610e+00, 9.1100e+00,
      6.5180e+00, 4.2110e+00, 7.1000e-02,-3.3150e+00, 2.1970e+00
    },
    {-4.9100e-01,-2.1070e+00, 4.4000e-02, 3.8400e-01,-1.1000e-02,-2.5860e+00,
      1.1600e+00, 9.0000e-01, 7.6700e-01, 1.2220e+00, 5.9600e-01, 7.8300e-01,
     -1.1890e+00,-3.1900e-01,-3.0450e+00,-3.2660e+00, 2.0350e+00,-2.5660e+00,
      3.2430e+00, 1.3220e+00, 2.9390e+00,-1.1290e+00, 6.6300e-01, 5.8800e-01,
     -2.7900e-01,-2.4600e-01, 1.6410e+00,-4.6500e-01,-2.8600e+00, 1.7240e+00,
     -4.9430e+00,-3.4600e+00,-1.9310e+00, 4.5750e+00, 6.0620e+00, 9.5010e+00,
      6.3620e+00, 5.2380e+00, 3.3000e-01,-3.8540e+00, 2.2120e+00
    },
    {-7.1800e-01,-2.1040e+00, 1.5200e-01, 3.0800e-01,-1.0200e-01,-2.6060e+00,
      1.0720e+00, 1.0760e+00, 9.2300e-01, 1.1910e+00, 5.1600e-01, 8.6100e-01,
     -1.1640e+00,-1.9500e-01,-3.1110e+00,-3.2610e+00, 2.0830e+00,-2.6370e+00,
      3.3020e+00, 1.3430e+00, 2.9590e+00,-1.2430e+00, 4.6400e-01, 6.8000e-01,
     -3.0700e-01,-1.4800e-01, 1.8780e+00,-3.3700e-01,-2.6930e+00, 1.6240e+00,
     -4.9830e+00,-3.8590e+00,-2.2100e+00, 5.7290e+00, 6.1410e+00, 9.6630e+00,
      6.4320e+00, 5.3330e+00,-1.7800e-01,-4.0290e+00, 2.4100e+00
    },
    {-7.4100e-01,-2.3290e+00, 1.1900e-01, 3.5600e-01,-4.7400e-01,-2.9350e+00,
      6.9300e-01, 9.2400e-01, 7.3400e-01, 1.0950e+00, 5.6300e-01, 4.9600e-01,
     -1.1450e+00,-7.4000e-02,-2.8830e+00,-2.9220e+00, 1.8010e+00,-2.7380e+00,
      3.4360e+00, 1.4210e+00, 2.7560e+00,-1.0340e+00, 1.7800e-01, 8.0500e-01,
      6.0000e-03, 3.0400e-01, 2.0110e+00,-2.6700e-01,-2.5470e+00, 1.7950e+00,
     -4.9270e+00,-3.5610e+00,-2.0310e+00, 5.2420e+00, 7.1570e+00, 9.8050e+00,
      6.3110e+00, 5.9890e+00,-2.2500e-01,-3.7550e+00, 2.5530e+00
    },
    {-7.2700e-01,-2.4090e+00, 4.6000e-02, 4.3700e-01,-5.0600e-01,-2.9190e+00,
      6.9900e-01, 9.0400e-01, 6.1000e-01, 1.0110e+00, 3.8500e-01, 4.9600e-01,
     -1.1510e+00,-2.1600e-01,-2.8170e+00,-3.0100e+00, 1.7110e+00,-2.8510e+00,
      3.3290e+00, 1.6020e+00, 2.7420e+00,-1.2850e+00, 2.2800e-01, 7.3800e-01,
     -8.1000e-02, 2.4800e-01, 1.9790e+00,-3.7700e-01,-2.4430e+00, 1.7370e+00,
     -5.5440e+00,-3.7830e+00,-1.7570e+00, 5.0630e+00, 6.3830e+00, 9.7480e+00,
      5.5080e+00, 5.9710e+00,-2.3200e-01,-4.1180e+00, 2.4790e+00
    },
    {-6.1200e-01,-2.3320e+00,-1.5400e-01, 3.5300e-01,-4.6000e-01,-3.0430e+00,
      6.4300e-01, 9.5000e-01, 5.1700e-01, 1.0280e+00, 5.0500e-01, 5.7000e-01,
     -1.0840e+00,-1.7000e-01,-2.9160e+00,-2.7430e+00, 1.8150e+00,-2.7190e+00,
      3.2690e+00, 1.7510e+00, 2.6910e+00,-1.0470e+00, 1.1700e-01, 8.0200e-01,
      1.3000e-02, 1.7900e-01, 2.0320e+00,-2.7900e-01,-2.5100e+00, 1.7850e+00,
     -4.6890e+00,-3.7350e+00,-1.6230e+00, 5.3370e+00, 6.6520e+00, 1.0099e+01,
      5.9330e+00, 5.4060e+00,-4.7400e-01,-4.2960e+00, 3.1120e+00
    },
    {-7.6400e-01,-2.5250e+00, 7.9000e-02, 4.5000e-01,-2.6100e-01,-2.9210e+00,
      7.4600e-01, 7.9700e-01, 6.4000e-01, 1.1850e+00, 4.9800e-01, 5.1100e-01,
     -1.1290e+00,-1.5700e-01,-2.8340e+00,-2.7540e+00, 1.7200e+00,-2.6470e+00,
      3.3480e+00, 1.6430e+00, 2.8610e+00,-1.1270e+00, 1.1800e-01, 6.3100e-01,
     -3.1800e-01, 2.3000e-02, 2.0540e+00,-3.3600e-01,-2.4260e+00, 1.7750e+00,
     -5.1510e+00,-3.5750e+00,-1.6620e+00, 5.7210e+00, 6.8550e+00, 1.0203e+01,
      6.6200e+00, 5.9550e+00,-1.0000e-03,-3.8400e+00, 3.2240e+00
    },
    {-8.0600e-01,-2.3980e+00, 2.2700e-01, 5.9900e-01,-2.2900e-01,-2.6410e+00,
      8.0300e-01, 6.0800e-01, 6.1600e-01, 1.1300e+00, 5.9400e-01, 6.9900e-01,
     -1.2930e+00,-3.2200e-01,-2.8820e+00,-2.9120e+00, 1.6260e+00,-2.6470e+00,
      3.4020e+00, 1.4800e+00, 3.1250e+00,-1.0290e+00, 1.3900e-01, 7.8000e-01,
     -2.5000e-01, 9.0000e-03, 2.1010e+00,-1.0400e-01,-2.2700e+00, 1.5730e+00,
     -4.9820e+00,-4.3020e+00,-1.7640e+00, 5.1240e+00, 7.2580e+00, 9.9500e+00,
      7.2540e+00, 5.9160e+00, 3.6400e-01,-3.6590e+00, 3.2110e+00
    },
    {-8.1800e-01,-2.4740e+00, 1.0500e-01, 4.9500e-01,-1.7800e-01,-2.6540e+00,
      9.0100e-01, 8.0400e-01, 5.3700e-01, 1.2080e+00, 5.8200e-01, 7.3000e-01,
     -1.2990e+00,-2.4400e-01,-2.9080e+00,-2.8900e+00, 1.4730e+00,-2.5250e+00,
      3.3520e+00, 1.3460e+00, 3.1520e+00,-1.0950e+00, 1.8000e-01, 5.6200e-01,
     -3.0300e-01,-1.2400e-01, 2.2020e+00,-2.1000e-02,-2.2890e+00, 1.4830e+00,
     -5.5170e+00,-3.8320e+00,-1.6040e+00, 4.8700e+00, 7.2000e+00, 9.5800e+00,
      7.1510e+00, 6.1130e+00, 3.7000e-02,-3.3930e+00, 3.2680e+00
    },
    {-7.8300e-01,-2.4140e+00, 1.5600e-01, 5.6300e-01,-3.1000e-01,-2.7710e+00,
      9.7900e-01, 7.2600e-01, 6.7600e-01, 1.0450e+00, 5.3500e-01, 6.8200e-01,
     -1.3420e+00,-2.1800e-01,-2.7450e+00,-2.8740e+00, 1.4450e+00,-2.5470e+00,
      3.4210e+00, 1.3100e+00, 3.1600e+00,-8.9300e-01, 3.6500e-01, 5.7500e-01,
     -4.4100e-01,-3.6800e-01, 2.2760e+00, 9.7000e-02,-2.2610e+00, 1.6530e+00,
     -5.2960e+00,-3.4870e+00,-1.7760e+00, 5.2760e+00, 6.4990e+00, 1.0462e+01,
      6.6500e+00, 6.5160e+00, 5.0000e-03,-3.7250e+00, 3.5600e+00
    },
    {-9.9800e-01,-2.3780e+00, 1.9000e-01, 6.8700e-01,-1.7300e-01,-2.6460e+00,
      9.6700e-01, 7.4400e-01, 6.4400e-01, 1.0910e+00, 6.5500e-01, 6.7600e-01,
     -1.1470e+00,-1.4700e-01,-3.0070e+00,-2.9370e+00, 1.3120e+00,-2.4940e+00,
      3.2960e+00, 1.1520e+00, 3.2180e+00,-1.1180e+00, 9.5000e-02, 4.8000e-01,
     -3.6900e-01,-4.5500e-01, 2.5400e+00,-2.1800e-01,-2.0240e+00, 1.8810e+00,
     -5.4430e+00,-3.8860e+00,-2.3880e+00, 4.9320e+00, 5.9200e+00, 1.0575e+01,
      7.2520e+00, 6.0650e+00,-8.6100e-01,-3.6860e+00, 3.5250e+00
    },
    {-8.9600e-01,-2.5180e+00, 2.8400e-01, 5.5500e-01,-1.2000e-01,-2.7780e+00,
      1.0940e+00, 7.6700e-01, 6.7500e-01, 1.1160e+00, 6.2800e-01, 7.5000e-01,
     -1.2970e+00,-2.1000e-01,-2.9390e+00,-2.8080e+00, 1.2360e+00,-2.4470e+00,
      3.3500e+00, 1.3090e+00, 3.1470e+00,-1.1880e+00, 2.5000e-01, 4.4000e-01,
     -3.5900e-01,-4.2100e-01, 2.3400e+00,-1.1000e-01,-2.1210e+00, 1.7040e+00,
     -5.8330e+00,-3.6340e+00,-2.6270e+00, 5.1260e+00, 6.2160e+00, 1.0546e+01,
      7.4010e+00, 5.9310e+00,-1.3770e+00,-4.1700e+00, 4.0380e+00
    },
    {-8.8400e-01,-2.4830e+00, 3.7400e-01, 6.5800e-01,-1.0900e-01,-2.7620e+00,
      1.0000e+00, 7.1500e-01, 6.4800e-01, 9.6200e-01, 7.8200e-01, 7.4400e-01,
     -1.1370e+00,-2.8900e-01,-2.9970e+00,-2.6860e+00, 1.1980e+00,-2.3190e+00,
      3.3300e+00, 1.1620e+00, 3.3550e+00,-1.4490e+00, 1.2100e-01, 5.0100e-01,
     -4.5300e-01,-3.1800e-01, 2.2180e+00,-1.5800e-01,-2.1200e+00, 1.9370e+00,
     -5.2180e+00,-3.9690e+00,-2.3020e+00, 6.0670e+00, 6.4230e+00, 1.0311e+01,
      7.3570e+00, 5.7470e+00,-1.1240e+00,-3.8200e+00, 3.1760e+00
    },
    {-9.4900e-01,-2.3510e+00, 1.5300e-01, 6.5000e-01, 3.0000e-03,-2.8940e+00,
      1.1840e+00, 5.3900e-01, 7.7400e-01, 8.0200e-01, 7.9100e-01, 8.4500e-01,
     -1.2190e+00,-4.2200e-01,-2.9090e+00,-2.6890e+00, 1.3370e+00,-2.4940e+00,
      3.4710e+00, 1.2970e+00, 3.2530e+00,-1.7300e+00, 2.6500e-01, 6.7200e-01,
     -4.2300e-01,-6.3400e-01, 2.3230e+00,-9.7000e-02,-2.0140e+00, 1.9290e+00,
     -4.6790e+00,-4.2670e+00,-1.9480e+00, 5.7090e+00, 6.7550e+00, 1.0957e+01,
      7.0000e+00, 4.9150e+00,-5.3600e-01,-4.1580e+00, 3.3620e+00
    },
    {-7.6700e-01,-2.2720e+00, 1.3500e-01, 6.6300e-01,-6.1000e-02,-2.7990e+00,
      1.1100e+00, 5.9700e-01, 8.6400e-01, 9.4100e-01, 8.6500e-01, 8.2000e-01,
     -1.2730e+00,-4.9800e-01,-2.8800e+00,-2.8290e+00, 1.1910e+00,-2.4550e+00,
      3.5900e+00, 1.2220e+00, 3.3700e+00,-1.6420e+00, 3.6400e-01, 7.1000e-01,
     -3.7600e-01,-4.7900e-01, 2.3610e+00,-8.7000e-02,-2.0150e+00, 1.8080e+00,
     -5.4650e+00,-3.7820e+00,-1.3730e+00, 5.6830e+00, 7.2420e+00, 1.0999e+01,
      6.8030e+00, 5.1780e+00,-4.0900e-01,-3.9510e+00, 2.8440e+00
    }
  };


  double netfun(std::vector<double>& in, const double* w)
  {
    double x00 = in[0];
    double x01 = in[1];
    double x;

    //Layer 1, Node 0
    x = w[0];
    x = x + w[1] * x00;
    x = x + w[2] * x01;
    double x10 = tanh(x);

    //Layer 1, Node 1
    x = w[3];
    x = x + w[4] * x00;
    x = x + w[5] * x01;
    double x11 = tanh(x);

    //Layer 1, Node 2
    x = w[6];
    x = x + w[7] * x00;
    x = x + w[8] * x01;
    double x12 = tanh(x);

    //Layer 1, Node 3
    x = w[9];
    x = x + w[10] * x00;
    x = x + w[11] * x01;
    double x13 = tanh(x);

    //Layer 1, Node 4
    x = w[12];
    x = x + w[13] * x00;
    x = x + w[14] * x01;
    double x14 = tanh(x);

    //Layer 1, Node 5
    x = w[15];
    x = x + w[16] * x00;
    x = x + w[17] * x01;
    double x15 = tanh(x);

    //Layer 1, Node 6
    x = w[18];
    x = x + w[19] * x00;
    x = x + w[20] * x01;
    double x16 = tanh(x);

    //Layer 1, Node 7
    x = w[21];
    x = x + w[22] * x00;
    x = x + w[23] * x01;
    double x17 = tanh(x);

    //Layer 1, Node 8
    x = w[24];
    x = x + w[25] * x00;
    x = x + w[26] * x01;
    double x18 = tanh(x);

    //Layer 1, Node 9
    x = w[27];
    x = x + w[28] * x00;
    x = x + w[29] * x01;
    double x19 = tanh(x);

    //Layer 2, Node 0
    x = w[30];
    x = x + w[31] * x10;
    x = x + w[32] * x11;
    x = x + w[33] * x12;
    x = x + w[34] * x13;
    x = x + w[35] * x14;
    x = x + w[36] * x15;
    x = x + w[37] * x16;
    x = x + w[38] * x17;
    x = x + w[39] * x18;
    x = x + w[40] * x19;
    double x20 = 1.0/(1.0+exp(-x));
    return x20;
  }
} // End anonymous namespace

//-----------------------------------------------------------------------------
// Compute average over networks. Default is to use all networks
//-----------------------------------------------------------------------------

double Dm4lmet(std::vector<double>& inputs,
               int first=0,
               int last=nnetworks-1)
{
  if ( first < 0 ) first = 0;
  if ( last  < 0 ) last  = nnetworks-1;
  if ( last  > nnetworks-1 ) last = nnetworks-1;
  if ( first > last )
    {
      std::cerr << "** Dm4lmet ** first-index > last-index"
                << std::endl; exit(3);
    }

  // Compute average over networks
  std::vector<double> in(ninputs);
  in[0] = (inputs[0] - mean[0]) / sigma[0];
  in[1] = (inputs[1] - mean[1]) / sigma[1];

  int   n = last - first + 1;
  double x = 0.0;
  for(int i=first; i <= last; i++) x += netfun(in, weight[i]);
  x /= n;
  return x;
}

double Dm4lmet(double f_mass4l,
	       double f_pfmet,
               int first=0, int last=nnetworks-1)
{
  std::vector<double> in(ninputs);
  in[0] = f_pfmet;
  in[1] = f_mass4l;
  return Dm4lmet(in, first, last);
}
